{
  "defaults": {},
  "inputs": [
    {
      "name": "jet3_pt",
      "offset": 0,
      "scale": 1
    },
    {
      "name": "jet3_eta",
      "offset": 0,
      "scale": 1
    },
    {
      "name": "lep1_eta",
      "offset": 0,
      "scale": 1
    },
    {
      "name": "jet2_pt",
      "offset": 0,
      "scale": 1
    },
    {
      "name": "jet1_E",
      "offset": 0,
      "scale": 1
    },
    {
      "name": "jet1_pt",
      "offset": 0,
      "scale": 1
    },
    {
      "name": "jetFwd1_eta",
      "offset": 0,
      "scale": 1
    },
    {
      "name": "mT_lep1",
      "offset": 0,
      "scale": 1
    },
    {
      "name": "resTop_BDT",
      "offset": 0,
      "scale": 1
    },
    {
      "name": "jet4_phi",
      "offset": 0,
      "scale": 1
    },
    {
      "name": "lep2_conePt",
      "offset": 0,
      "scale": 1
    },
    {
      "name": "massL",
      "offset": 0,
      "scale": 1
    },
    {
      "name": "jet2_E",
      "offset": 0,
      "scale": 1
    },
    {
      "name": "jet1_phi",
      "offset": 0,
      "scale": 1
    },
    {
      "name": "jet2_eta",
      "offset": 0,
      "scale": 1
    },
    {
      "name": "n_presel_jetFwd",
      "offset": 0,
      "scale": 1
    },
    {
      "name": "jet3_E",
      "offset": 0,
      "scale": 1
    },
    {
      "name": "n_presel_jet",
      "offset": 0,
      "scale": 1
    },
    {
      "name": "jet4_E",
      "offset": 0,
      "scale": 1
    },
    {
      "name": "lep1_charge",
      "offset": 0,
      "scale": 1
    },
    {
      "name": "avg_dr_jet",
      "offset": 0,
      "scale": 1
    },
    {
      "name": "lep1_phi",
      "offset": 0,
      "scale": 1
    },
    {
      "name": "mindr_lep2_jet",
      "offset": 0,
      "scale": 1
    },
    {
      "name": "nBJetLoose",
      "offset": 0,
      "scale": 1
    },
    {
      "name": "jet4_pt",
      "offset": 0,
      "scale": 1
    },
    {
      "name": "mindr_lep1_jet",
      "offset": 0,
      "scale": 1
    },
    {
      "name": "lep1_conePt",
      "offset": 0,
      "scale": 1
    },
    {
      "name": "jetFwd1_pt",
      "offset": 0,
      "scale": 1
    },
    {
      "name": "lep2_phi",
      "offset": 0,
      "scale": 1
    },
    {
      "name": "jet2_phi",
      "offset": 0,
      "scale": 1
    },
    {
      "name": "lep2_eta",
      "offset": 0,
      "scale": 1
    },
    {
      "name": "mbb",
      "offset": 0,
      "scale": 1
    },
    {
      "name": "lep1_E",
      "offset": 0,
      "scale": 1
    },
    {
      "name": "jet4_eta",
      "offset": 0,
      "scale": 1
    },
    {
      "name": "nBJetMedium",
      "offset": 0,
      "scale": 1
    },
    {
      "name": "Hj_tagger_resTop",
      "offset": 0,
      "scale": 1
    },
    {
      "name": "Dilep_pdgId",
      "offset": 0,
      "scale": 1
    },
    {
      "name": "mT_lep2",
      "offset": 0,
      "scale": 1
    },
    {
      "name": "metLD",
      "offset": 0,
      "scale": 1
    },
    {
      "name": "jet3_phi",
      "offset": 0,
      "scale": 1
    },
    {
      "name": "maxeta",
      "offset": 0,
      "scale": 1
    },
    {
      "name": "jet1_eta",
      "offset": 0,
      "scale": 1
    },
    {
      "name": "lep2_E",
      "offset": 0,
      "scale": 1
    }
  ],
  "layers": [
    {
      "activation": "rectified",
      "architecture": "dense",
      "bias": [
        3.351726770401001,
        -7.897477149963379,
        0.010268604382872581,
        7.803048133850098,
        4.4977898597717285,
        -8.109101295471191,
        -0.11108196526765823,
        -1.9316399097442627,
        -2.2109169960021973,
        -3.778442144393921,
        1.6442397832870483,
        -6.804103374481201,
        3.711879014968872,
        7.061415672302246,
        -3.393045425415039,
        -7.79923677444458,
        -8.089797973632812,
        0.06510022282600403,
        -0.39629805088043213,
        6.270828723907471,
        -5.309544563293457,
        7.04874849319458,
        -7.556249618530273,
        1.4807876348495483,
        -3.989065647125244,
        -7.077817440032959,
        -2.9889819622039795,
        12.038033485412598,
        10.166218757629395,
        8.175734519958496,
        -1.5360486507415771,
        0.0016207693843171
      ],
      "weights": [
        -0.003418124280869961,
        -0.347565621137619,
        -0.3705828785896301,
        0.019234884530305862,
        -0.003433181904256344,
        -0.00871057529002428,
        -0.005395151674747467,
        0.011847867630422115,
        0.00521455705165863,
        -0.13798584043979645,
        -0.03384053707122803,
        -0.0005139493732713163,
        0.001751699484884739,
        -0.03844200819730759,
        -0.3498333692550659,
        0.600359320640564,
        0.013131333515048027,
        -0.44082653522491455,
        0.00950592290610075,
        0.16926172375679016,
        1.4341046810150146,
        -0.19205041229724884,
        -0.00572187127545476,
        0.07426278293132782,
        0.008265429176390171,
        -1.162860631942749,
        -1.5932896137237549,
        -0.013298851437866688,
        -0.09100859612226486,
        -0.08823791146278381,
        -0.6042467355728149,
        0.010232771746814251,
        1.5908957719802856,
        -0.08063144236803055,
        0.5432105660438538,
        0.5151450634002686,
        0.9371445178985596,
        -0.008031731471419334,
        0.0011144321179017425,
        -0.022828010842204094,
        3.2897462844848633,
        -0.3605444133281708,
        0.0118370670825243,
        -0.08439823985099792,
        0.1355707049369812,
        0.4767600893974304,
        -0.03409072011709213,
        0.046800293028354645,
        -0.0933355838060379,
        0.3225472569465637,
        0.08707348257303238,
        0.0001374622224830091,
        -0.2699843943119049,
        -0.9457425475120544,
        0.12488032132387161,
        0.06332436949014664,
        -0.08495564013719559,
        0.2662138342857361,
        -2.299257755279541,
        0.08573874086141586,
        -4.505494594573975,
        0.07506288588047028,
        1.0096936225891113,
        -0.04523578658699989,
        -0.004373553209006786,
        2.1195902824401855,
        -0.18675623834133148,
        -0.11269999295473099,
        4.598954200744629,
        0.24810028076171875,
        -0.027370374649763107,
        0.08722054958343506,
        -0.24867703020572662,
        6.159963130950928,
        0.027090081945061684,
        0.027137253433465958,
        0.2503059208393097,
        -1.4314954280853271,
        -0.16095681488513947,
        3.6042497158050537,
        0.02432427369058132,
        -0.059250980615615845,
        -0.38383227586746216,
        5.929441452026367,
        -0.07285688817501068,
        1.7536770105361938,
        0.11766479909420013,
        0.5647034049034119,
        -1.3920314311981201,
        -1.7550048828125,
        -0.23111064732074738,
        -0.48258212208747864,
        1.125923752784729,
        0.16103607416152954,
        -0.2550179362297058,
        -0.15748482942581177,
        -0.6683323383331299,
        -0.1725175678730011,
        0.013236246071755886,
        -2.291346311569214,
        -1.6132954359054565,
        -7.752249717712402,
        -0.23433677852153778,
        0.29657676815986633,
        0.16001184284687042,
        3.165865659713745,
        0.08889395743608475,
        -0.26583972573280334,
        1.3422638177871704,
        -1.7205934524536133,
        0.18906445801258087,
        1.388063669204712,
        -0.3952772915363312,
        -0.035713233053684235,
        -0.16041411459445953,
        1.192737102508545,
        0.9780375361442566,
        -0.20655034482479095,
        0.03594917058944702,
        -0.10835687071084976,
        0.005740927532315254,
        3.9704205989837646,
        -0.5116048455238342,
        -0.014403383247554302,
        -0.25681084394454956,
        1.67769455909729,
        1.4503660202026367,
        -1.7104642391204834,
        0.23550140857696533,
        -0.046794600784778595,
        -3.383251905441284,
        2.573760986328125,
        -0.021988388150930405,
        0.00030632756534032524,
        0.016855420544743538,
        -0.5509505271911621,
        0.01590545102953911,
        19.417390823364258,
        0.6668919324874878,
        0.03322251886129379,
        0.030629493296146393,
        -0.001246136613190174,
        0.2386937141418457,
        -4.156965732574463,
        1.0909720659255981,
        -0.005995770916342735,
        3.225107192993164,
        0.009832924231886864,
        0.268445760011673,
        -3.6564035415649414,
        -0.25822901725769043,
        4.878543376922607,
        -0.36474061012268066,
        0.12002142518758774,
        4.61190128326416,
        -0.012715164572000504,
        0.02332156151533127,
        -0.06290195882320404,
        0.1908441185951233,
        0.9995777010917664,
        -0.002408198080956936,
        0.0001931020524352789,
        -0.4927547872066498,
        -0.5112168192863464,
        -0.04122546687722206,
        -1.212015151977539,
        0.0014969166368246078,
        0.017828911542892456,
        0.30879631638526917,
        -1.136979579925537,
        -4.3623785972595215,
        0.020103925839066505,
        0.0027904650196433067,
        -0.07697996497154236,
        0.05773238092660904,
        0.01879354566335678,
        -0.027951035648584366,
        -1.5372662544250488,
        0.043902598321437836,
        -0.0023231790401041508,
        0.001743895118124783,
        -0.010318002663552761,
        -0.061183299869298935,
        -0.002945763524621725,
        0.001251766923815012,
        0.24805624783039093,
        -0.0076880124397575855,
        -0.38684922456741333,
        0.007305808365345001,
        -0.5537169575691223,
        0.003493993077427149,
        0.023378409445285797,
        1.4548227787017822,
        -0.24583913385868073,
        -0.030398542061448097,
        -0.21136517822742462,
        0.006150313187390566,
        -1.1258689165115356,
        1.722806692123413,
        0.0006508083315566182,
        0.0030658692121505737,
        0.05981715768575668,
        0.262370765209198,
        -0.001632524887099862,
        0.09299040585756302,
        0.007179054897278547,
        0.019139254465699196,
        0.10644160211086273,
        -0.3893410265445709,
        -0.005878232419490814,
        0.008310804143548012,
        0.0041169109754264355,
        -2.788163423538208,
        0.011695059947669506,
        0.028141973540186882,
        -0.03930158540606499,
        -0.030519437044858932,
        -0.35961222648620605,
        -0.03224489837884903,
        0.0894543007016182,
        -0.15778592228889465,
        -0.14372766017913818,
        0.06379136443138123,
        -0.0009352862252853811,
        -0.3427960276603699,
        1.533133864402771,
        0.10793222486972809,
        0.0852944478392601,
        -0.059999264776706696,
        0.2069063037633896,
        0.09547584503889084,
        0.06993970274925232,
        0.42009517550468445,
        0.05183962732553482,
        -1.9993520975112915,
        -0.020685328170657158,
        -0.11252173781394958,
        0.21513332426548004,
        0.5202642679214478,
        -0.030145272612571716,
        0.8194543719291687,
        -0.0002803973329719156,
        -0.015461868606507778,
        0.08455071598291397,
        -0.16349557042121887,
        -1.2705495357513428,
        0.01074252836406231,
        0.12751103937625885,
        -0.30717915296554565,
        -1.3489370346069336,
        -0.25047412514686584,
        1.685707449913025,
        0.04325392097234726,
        -0.051550231873989105,
        -0.31172555685043335,
        14.759329795837402,
        0.25965210795402527,
        -0.6503181457519531,
        -0.10609897971153259,
        -0.29747092723846436,
        -0.00015420296404045075,
        -0.175540030002594,
        -0.33447256684303284,
        0.06347254663705826,
        0.3870982825756073,
        0.07616186141967773,
        0.2894512116909027,
        0.06827268749475479,
        -0.1473461240530014,
        -0.11863333731889725,
        0.12226933240890503,
        0.03277352824807167,
        -0.17499184608459473,
        0.10952898114919662,
        -0.22046922147274017,
        0.15264785289764404,
        0.15997153520584106,
        -0.5069224834442139,
        0.11015690118074417,
        -0.052374206483364105,
        -0.13310673832893372,
        0.09924022853374481,
        -0.11254075914621353,
        -0.13865673542022705,
        -0.30894920229911804,
        -0.19850346446037292,
        0.04090121388435364,
        -0.19204223155975342,
        -0.3509843945503235,
        -0.20520742237567902,
        -0.10764431208372116,
        -0.04284714534878731,
        -0.28900063037872314,
        0.6448950171470642,
        -0.0306815505027771,
        -0.312383234500885,
        -0.13262951374053955,
        0.01260533556342125,
        0.026256483048200607,
        -0.1696595400571823,
        -0.17703111469745636,
        0.0033797440119087696,
        -0.015757912769913673,
        -0.20662586390972137,
        -0.07158026844263077,
        -0.03660408779978752,
        -1.3996458053588867,
        0.04825867339968681,
        -0.06187310442328453,
        -0.005997459404170513,
        -0.1283392757177353,
        0.18023234605789185,
        -0.00427963025867939,
        -0.0209196824580431,
        0.4703894555568695,
        -0.09634774923324585,
        -0.9060983657836914,
        -0.0024081787560135126,
        0.301567405462265,
        0.0040079643949866295,
        0.11335460096597672,
        0.5096055865287781,
        -0.1151367798447609,
        2.573747396469116,
        -1.181327223777771,
        0.08305232226848602,
        -4.327110290527344,
        1.522194743156433,
        0.008543177507817745,
        0.13618823885917664,
        0.24381662905216217,
        -0.0970286875963211,
        -0.02265670895576477,
        0.10664189606904984,
        0.12493328005075455,
        1.4467012882232666,
        -5.863461494445801,
        -1.0292919874191284,
        -0.034071628004312515,
        0.0042461222037673,
        0.1369495987892151,
        3.810732841491699,
        5.3180119721218944e-05,
        -0.07541884481906891,
        -0.02404843270778656,
        -0.2996169328689575,
        0.5252406597137451,
        0.0528065450489521,
        0.009117062203586102,
        -0.0524684302508831,
        -0.022281425073742867,
        0.01191677339375019,
        0.005915988236665726,
        -0.32985103130340576,
        1.2453267574310303,
        0.12186338007450104,
        0.003018098883330822,
        -0.08472234010696411,
        -0.08792086690664291,
        -1.4106242656707764,
        0.0070006041787564754,
        -1.5146095752716064,
        0.01692517101764679,
        0.934701681137085,
        -0.10862229019403458,
        -0.2842112183570862,
        -8.71657657623291,
        -1.2492157220840454,
        0.02407526597380638,
        -6.707127094268799,
        -0.04614314064383507,
        -0.0061210645362734795,
        0.015610807575285435,
        0.2926483154296875,
        0.07044659554958344,
        0.0040402598679065704,
        -0.004489861894398928,
        -0.20028963685035706,
        -0.17232060432434082,
        10.884998321533203,
        -5.345492362976074,
        0.10240691900253296,
        0.08756807446479797,
        0.1430029720067978,
        -17.36450958251953,
        0.049017760902643204,
        0.017670419067144394,
        -0.011892643757164478,
        -0.29478469491004944,
        -0.09434664249420166,
        -0.021125715225934982,
        -0.0047842152416706085,
        -0.036266203969717026,
        0.10801373422145844,
        0.029392322525382042,
        3.762073516845703,
        0.32227247953414917,
        0.15918345749378204,
        -0.016948331147432327,
        -0.0053143929690122604,
        0.0135849229991436,
        -0.29742202162742615,
        -3.133380651473999,
        -0.010153759270906448,
        7.273581027984619,
        -0.013111913576722145,
        2.0221660137176514,
        -3.7618753910064697,
        0.3601057529449463,
        -5.406888961791992,
        2.650470495223999,
        0.07234299927949905,
        -5.087060451507568,
        -0.0013809646479785442,
        0.007799200247973204,
        0.08385942131280899,
        0.07035420089960098,
        0.10035941749811172,
        -0.009237528778612614,
        0.003387926844879985,
        1.1346831321716309,
        1.2765636444091797,
        -0.1414368599653244,
        -2.229889154434204,
        0.01766231283545494,
        -0.02400078810751438,
        0.15378977358341217,
        0.7756360173225403,
        -0.18122369050979614,
        -0.04859432578086853,
        -0.05564730241894722,
        0.8180995583534241,
        -0.3242114782333374,
        -0.1109149158000946,
        -0.06462176144123077,
        0.3965746760368347,
        -0.07238136976957321,
        -0.050894275307655334,
        -0.0020760546904057264,
        0.16090522706508636,
        0.3048447072505951,
        -0.10370311141014099,
        -0.03836603835225105,
        -0.08728007972240448,
        1.4740897417068481,
        4.333109378814697,
        -0.0012726625427603722,
        1.5614292621612549,
        0.020024413242936134,
        0.4813089966773987,
        -0.13310839235782623,
        0.13056547939777374,
        4.067570209503174,
        4.923084735870361,
        -0.03613768517971039,
        3.513275384902954,
        -0.08183760195970535,
        0.16389569640159607,
        0.19385777413845062,
        -0.051752571016550064,
        7.790256500244141,
        0.01966232992708683,
        0.384397029876709,
        0.4504777789115906,
        6.365890026092529,
        -4.308034896850586,
        -2.049802541732788,
        -0.15672357380390167,
        -0.08689304441213608,
        -0.37827712297439575,
        -8.82410717010498,
        0.36032208800315857,
        0.02116110920906067,
        0.06303082406520844,
        -0.99395352602005,
        0.24461866915225983,
        0.077473483979702,
        -0.053686197847127914,
        0.18168801069259644,
        0.28606608510017395,
        0.05773967131972313,
        0.005604417994618416,
        -0.332978755235672,
        0.05453167483210564,
        0.26013898849487305,
        -0.026124225929379463,
        0.04568342864513397,
        -0.9009130001068115,
        -2.127303123474121,
        0.016235044226050377,
        -3.6623876094818115,
        0.019686046987771988,
        9.796916007995605,
        0.039431169629096985,
        -0.05004208907485008,
        -0.025556711480021477,
        2.9474081993103027,
        0.04991350322961807,
        -1.1708078384399414,
        0.426442950963974,
        0.012581795454025269,
        0.024698179215192795,
        0.04680020734667778,
        -8.85212516784668,
        0.015453302301466465,
        -0.126785546541214,
        -0.6233798861503601,
        6.1331024169921875,
        -0.8343262076377869,
        -1.950429081916809,
        0.03195183724164963,
        0.1077752560377121,
        -0.07198528945446014,
        10.354886054992676,
        -1.4970660209655762,
        -0.10980980098247528,
        0.7557994723320007,
        0.037149157375097275,
        -0.7967255711555481,
        0.5039780735969543,
        -0.2104036957025528,
        0.37120091915130615,
        1.4559615850448608,
        0.04487419128417969,
        -0.014211403205990791,
        -0.6948508620262146,
        -0.14981791377067566,
        0.016363371163606644,
        -0.27835506200790405,
        -0.011640682816505432,
        0.2929896116256714,
        -3.5646445751190186,
        -0.2991486191749573,
        0.8049445748329163,
        -0.20696468651294708,
        -1.486133337020874,
        0.30023476481437683,
        -0.5695456266403198,
        2.5952513217926025,
        2.021130084991455,
        0.7616456747055054,
        0.6602190732955933,
        -0.09432657808065414,
        -1.1595524549484253,
        -0.1425713747739792,
        0.0905272364616394,
        0.6427294015884399,
        0.045155495405197144,
        0.040454454720020294,
        -0.4048132300376892,
        0.5089524984359741,
        -5.049300193786621,
        -0.2383187860250473,
        0.051966533064842224,
        0.04713871330022812,
        0.43361786007881165,
        2.4208312034606934,
        -0.1556282788515091,
        0.12476758658885956,
        -0.0652022510766983,
        0.05836797505617142,
        -0.41497015953063965,
        -0.10818129777908325,
        0.035177938640117645,
        0.1937956064939499,
        -0.04503652825951576,
        0.029649030417203903,
        0.003455154364928603,
        -0.38732007145881653,
        0.10962609946727753,
        -0.039750322699546814,
        0.03829977288842201,
        -0.043349605053663254,
        0.333076149225235,
        2.4915506839752197,
        0.06596063822507858,
        6.663541316986084,
        0.0631117895245552,
        -4.593820571899414,
        -0.05224042013287544,
        -0.041995301842689514,
        -2.7505600452423096,
        -4.5189595222473145,
        -0.0433943010866642,
        -4.004983425140381,
        0.4774324595928192,
        0.039411816745996475,
        -0.09355984628200531,
        -0.12243352830410004,
        -7.237513065338135,
        0.028796827420592308,
        -0.027750929817557335,
        -0.2983076274394989,
        -10.221039772033691,
        0.09127390384674072,
        0.9672078490257263,
        -0.08826673775911331,
        -0.01216822862625122,
        -0.5088406205177307,
        -5.983604431152344,
        0.019071515649557114,
        -0.005021438002586365,
        -0.0918775349855423,
        -1.0819743871688843,
        0.21732750535011292,
        -0.48667532205581665,
        -0.03967751935124397,
        -0.49105456471443176,
        0.4018099904060364,
        -0.018286557868123055,
        -0.0019386076601222157,
        0.10700853914022446,
        0.33599305152893066,
        0.1689654141664505,
        -0.006555705331265926,
        0.05042394623160362,
        1.3901647329330444,
        -2.6972718238830566,
        0.016084348782896996,
        -0.7185062170028687,
        -0.009987540543079376,
        -2.6347925662994385,
        -0.06211242824792862,
        -0.5733837485313416,
        1.7727469205856323,
        -0.6201255917549133,
        -0.025422532111406326,
        1.543308973312378,
        0.44479426741600037,
        0.13091303408145905,
        0.0422113761305809,
        -0.20995518565177917,
        1.0781258344650269,
        0.45089295506477356,
        -0.17494645714759827,
        0.5953934192657471,
        -5.656835079193115,
        6.123585224151611,
        3.6338775157928467,
        -0.018878920003771782,
        0.11881126463413239,
        0.5595641732215881,
        12.06895637512207,
        -1.6911814212799072,
        -0.22146624326705933,
        0.021581916138529778,
        -0.24116063117980957,
        0.18709982931613922,
        0.0017302042106166482,
        -0.01423026341944933,
        -0.041679058223962784,
        -0.10971023142337799,
        0.06490182131528854,
        -0.0019023710628971457,
        -0.44985851645469666,
        0.1016068086028099,
        -0.05250043049454689,
        -0.010950983501970768,
        -0.14086459577083588,
        0.813666045665741,
        3.0263586044311523,
        -0.014213751070201397,
        -0.12192327529191971,
        -0.0062299855053424835,
        2.4054107666015625,
        8.42141056060791,
        -0.4468681812286377,
        -1.9015263319015503,
        3.3024163246154785,
        0.1222592145204544,
        -0.40775617957115173,
        0.060323357582092285,
        0.11607427895069122,
        0.029666390269994736,
        0.07212934643030167,
        -1.7067745923995972,
        0.028118839487433434,
        -0.030290953814983368,
        0.1415659338235855,
        4.150461196899414,
        2.709789752960205,
        2.3319015502929688,
        0.0199394803494215,
        -0.09826956689357758,
        -0.1166306659579277,
        7.487367153167725,
        -0.2496372014284134,
        -0.04854733869433403,
        0.01989615522325039,
        -0.2292271852493286,
        -0.6815579533576965,
        -0.03565142676234245,
        0.018132561817765236,
        0.038628950715065,
        -0.6985360980033875,
        0.0005719401524402201,
        -0.0012877975823357701,
        -0.1279536783695221,
        -1.140548586845398,
        -0.07403601706027985,
        0.009980271570384502,
        0.1809159368276596,
        0.014699729159474373,
        2.35107684135437,
        -0.020796824246644974,
        3.851370334625244,
        -0.005972372833639383,
        0.3497481644153595,
        1.3547483831644058e-05,
        0.11859127879142761,
        -4.55066442489624,
        -0.4968799352645874,
        0.12211163341999054,
        -2.56353497505188,
        -0.22173140943050385,
        0.10974501818418503,
        -0.008689247071743011,
        0.1912556290626526,
        -0.15247221291065216,
        0.019780149683356285,
        0.28044819831848145,
        -0.5922069549560547,
        -3.875786781311035,
        2.2154173851013184,
        -2.74336576461792,
        0.043844468891620636,
        0.03105032444000244,
        0.2596135139465332,
        13.170459747314453,
        0.4196048676967621,
        1.3478209972381592,
        -0.005724877584725618,
        1.995713233947754,
        -1.832843542098999,
        -0.20802399516105652,
        0.09660624712705612,
        -0.294956237077713,
        -0.05309717357158661,
        -0.020473580807447433,
        0.024745581671595573,
        -0.32154330611228943,
        0.094759501516819,
        -0.04304593428969383,
        0.057025037705898285,
        0.0012545555364340544,
        1.6164052486419678,
        -2.3883161544799805,
        0.007584284525364637,
        1.424734115600586,
        -0.043104708194732666,
        0.9534630179405212,
        7.6990437507629395,
        0.15189315378665924,
        3.4579501152038574,
        1.3354148864746094,
        0.11659242957830429,
        6.127509117126465,
        -0.11864077299833298,
        0.06994421780109406,
        -0.08566083759069443,
        0.18631955981254578,
        -0.7818132042884827,
        -0.05057905614376068,
        0.004407950676977634,
        0.27890053391456604,
        -1.550402045249939,
        7.112442493438721,
        0.16144108772277832,
        0.02126477099955082,
        -0.04635866731405258,
        0.8361959457397461,
        1.6187047958374023,
        2.2646098136901855,
        -0.011208719573915005,
        -0.10185930877923965,
        1.1362736225128174,
        0.44735997915267944,
        0.16181187331676483,
        -0.2056286633014679,
        0.29674071073532104,
        1.8236244916915894,
        -0.012288660742342472,
        0.02220364473760128,
        -0.17423248291015625,
        0.14990366995334625,
        0.044348664581775665,
        -0.1803417056798935,
        -0.3549708127975464,
        -1.4913800954818726,
        1.53221595287323,
        -0.10488298535346985,
        -6.486665725708008,
        -0.06272883713245392,
        5.396485328674316,
        0.021279990673065186,
        0.101698137819767,
        -0.31369608640670776,
        3.8625123500823975,
        -0.1122860535979271,
        -0.3806722164154053,
        0.14656676352024078,
        1.4683315753936768,
        -0.15397824347019196,
        -0.6390392780303955,
        1.1621402502059937,
        0.09668268263339996,
        -0.02228524535894394,
        0.33617261052131653,
        1.6524019241333008,
        6.5419511795043945,
        -1.343450665473938,
        -0.16322796046733856,
        0.010427149012684822,
        0.23541739583015442,
        0.9325578212738037,
        0.3573952317237854,
        0.04560423269867897,
        0.03181951493024826,
        8.813089370727539,
        -6.122643947601318,
        0.012826217338442802,
        -0.012787247076630592,
        0.005776893813163042,
        1.278944969177246,
        -0.011954654939472675,
        1.0702351331710815,
        -1.3504122495651245,
        0.04917310178279877,
        -0.005178407765924931,
        -0.006759522948414087,
        -0.10737352818250656,
        10.284360885620117,
        -3.290778875350952,
        -0.0068259937688708305,
        0.3005130887031555,
        0.004659621510654688,
        0.027294622734189034,
        -0.27144598960876465,
        -0.17985838651657104,
        1.372283935546875,
        0.5479384064674377,
        -0.09979845583438873,
        1.9227683544158936,
        -0.009908408857882023,
        -0.07301768660545349,
        0.2413298636674881,
        0.3707980811595917,
        -2.134427785873413,
        0.01495678536593914,
        0.013335511088371277,
        2.510390281677246,
        -1.3256655931472778,
        0.4077966809272766,
        0.06556099653244019,
        -0.00882535707205534,
        0.021543147042393684,
        0.005381591152399778,
        -3.0493202209472656,
        11.029001235961914,
        -0.0007641655392944813,
        0.01280548982322216,
        -0.07191961258649826,
        -0.9381223320960999,
        -0.20130808651447296,
        0.04362320154905319,
        0.8564598560333252,
        0.05706505849957466,
        -0.12075773626565933,
        -0.0015749814920127392,
        -0.08174139261245728,
        0.21565674245357513,
        -0.0010101364459842443,
        0.01719219610095024,
        0.00793949980288744,
        -0.06824584305286407,
        -1.733579397201538,
        0.023751690983772278,
        -0.4026472568511963,
        0.060955483466386795,
        -1.09765625,
        -0.28231093287467957,
        0.3278764486312866,
        0.0526026152074337,
        -0.6291150450706482,
        0.050554051995277405,
        -2.858182668685913,
        -0.9091288447380066,
        -0.021609626710414886,
        -0.10781561583280563,
        0.16429537534713745,
        -0.6586436033248901,
        -0.016946934163570404,
        -0.1268809586763382,
        -0.19090406596660614,
        3.604539394378662,
        -1.5466383695602417,
        1.1724185943603516,
        -0.01720394939184189,
        0.062247902154922485,
        0.2884019911289215,
        5.503211975097656,
        0.14829428493976593,
        -0.2357197254896164,
        0.05284145474433899,
        -0.5052745342254639,
        0.7054641842842102,
        -0.024145808070898056,
        0.031426891684532166,
        0.08127348870038986,
        -0.28963860869407654,
        -0.009172899648547173,
        0.005919657647609711,
        -0.2857258915901184,
        -0.5009716749191284,
        -0.030044538900256157,
        0.033470846712589264,
        0.02306215837597847,
        -0.2689130902290344,
        3.1694753170013428,
        0.04450463131070137,
        4.395449161529541,
        0.02942267432808876,
        -3.174083709716797,
        -0.009452436119318008,
        -0.10134249180555344,
        -4.442206382751465,
        2.659302234649658,
        0.1456751674413681,
        -3.60815691947937,
        -0.14069242775440216,
        0.08440136909484863,
        -0.0025169802829623222,
        -0.07622159272432327,
        11.230381965637207,
        0.046455975621938705,
        0.04083589091897011,
        -0.8363471031188965,
        0.1045110672712326,
        2.135751247406006,
        -0.24973073601722717,
        -0.05826954543590546,
        0.07649882137775421,
        -0.20795170962810516,
        -10.433520317077637,
        -0.21007756888866425,
        0.8064936399459839,
        -0.014601798728108406,
        0.08464326709508896,
        -0.11629218608140945,
        0.014052708633244038,
        0.0087807672098279,
        -0.014274777844548225,
        -0.18157140910625458,
        -0.02036523073911667,
        -0.00205411110073328,
        0.024580221623182297,
        0.13793142139911652,
        0.0042580426670610905,
        -0.001092290855012834,
        -0.031793829053640366,
        0.27016663551330566,
        1.604725956916809,
        0.004686612635850906,
        1.1461350917816162,
        0.00014129345072433352,
        1.0313327312469482,
        -0.03342607244849205,
        -0.11161046475172043,
        0.04497535526752472,
        0.045973941683769226,
        -0.015391840599477291,
        0.4507855474948883,
        0.6380719542503357,
        0.01676235720515251,
        0.05067841336131096,
        -0.035429637879133224,
        0.13551047444343567,
        -0.009539962746202946,
        -0.4704650342464447,
        -0.0687546357512474,
        0.3681783676147461,
        -0.4674564003944397,
        -1.743362307548523,
        -0.003998408559709787,
        -0.002344553591683507,
        -0.11593662202358246,
        17.403507232666016,
        0.4184832274913788,
        0.013853662647306919,
        0.06436709314584732,
        -0.6239398717880249,
        -0.5998684763908386,
        -0.1483311951160431,
        0.14150117337703705,
        -0.0010292198276147246,
        -0.5006275177001953,
        -0.03668542578816414,
        -0.007787313777953386,
        -0.019242452457547188,
        -0.7690473794937134,
        -0.010762595571577549,
        0.12617196142673492,
        0.02369055151939392,
        -0.1146826520562172,
        2.071420907974243,
        0.06322190165519714,
        0.6489366888999939,
        0.04116721823811531,
        1.2415151596069336,
        -0.08468656986951828,
        -0.26306846737861633,
        1.9780641794204712,
        6.402870178222656,
        0.289803147315979,
        0.44116806983947754,
        -0.130492702126503,
        0.13135866820812225,
        -0.08758479356765747,
        0.08982985466718674,
        -10.531681060791016,
        0.01613869145512581,
        0.009868434630334377,
        -0.6895527243614197,
        7.851767539978027,
        -1.4407286643981934,
        0.9370644688606262,
        -0.033275216817855835,
        0.059637922793626785,
        0.34993675351142883,
        -8.35706615447998,
        0.2162710577249527,
        0.1950722634792328,
        0.02537827380001545,
        -0.6323855519294739,
        1.5513423681259155,
        0.09210490435361862,
        -0.0016111887525767088,
        -0.015397372655570507,
        -0.7885447144508362,
        0.12137944996356964,
        -9.586040687281638e-05,
        -0.20379269123077393,
        1.952459692955017,
        -1.685888409614563,
        0.0005691095138899982,
        -0.10265658795833588,
        -1.4148993492126465,
        1.2116683721542358,
        0.008393841795623302,
        2.3455400466918945,
        0.01705516315996647,
        -0.9828529357910156,
        0.0007864480721764266,
        0.4427216947078705,
        2.893980026245117,
        0.5690054893493652,
        -0.17786628007888794,
        2.995110034942627,
        0.5071144700050354,
        -0.04775090515613556,
        0.18218153715133667,
        0.025886928662657738,
        -0.5228061079978943,
        0.00014891361934132874,
        0.083491250872612,
        -0.5449524521827698,
        1.1444823741912842,
        -3.6715354919433594,
        0.5142895579338074,
        0.1909167468547821,
        -0.00790195632725954,
        0.1640138477087021,
        4.037096977233887,
        -1.0455830097198486,
        0.11879671365022659,
        0.09670892357826233,
        -0.601540744304657,
        0.9185664653778076,
        0.006480354815721512,
        0.0031732418574392796,
        0.08847929537296295,
        -0.3327389359474182,
        -0.015258681029081345,
        0.00435084942728281,
        0.11414162069559097,
        0.062044158577919006,
        0.08796712756156921,
        0.017047850415110588,
        0.0439889021217823,
        -0.1325703263282776,
        1.0732030868530273,
        0.024367570877075195,
        3.5191805362701416,
        0.026049530133605003,
        6.049072265625,
        -0.07058369368314743,
        -0.23397694528102875,
        -0.047956760972738266,
        -3.303251266479492,
        0.39779144525527954,
        1.1387827396392822,
        -0.1656215637922287,
        0.32693037390708923,
        -0.4020003378391266,
        0.041004519909620285,
        2.621480703353882,
        -0.012945965863764286,
        -0.023946452885866165,
        -0.7988540530204773,
        -8.998701095581055,
        0.021211666986346245,
        1.953925371170044,
        -0.053538449108600616,
        0.2401108741760254,
        0.04387199506163597,
        12.949067115783691,
        -0.761709451675415,
        -0.11712943762540817,
        -0.01582298055291176,
        0.23029673099517822,
        1.4460443258285522,
        0.004793395288288593,
        0.00048413852346129715,
        -0.0004070807481184602,
        -0.10293274372816086,
        0.0006536521832458675,
        8.055832586251199e-05,
        -0.07926943898200989,
        0.09836431592702866,
        0.0035271213855594397,
        -0.00019126982078887522,
        0.020050672814249992,
        0.6095984578132629,
        0.2798161506652832,
        0.0007947502308525145,
        -0.14177756011486053,
        0.002377265365794301,
        0.07168562710285187,
        -0.006712650880217552,
        -0.02149019204080105,
        0.35914549231529236,
        -0.018413130193948746,
        -0.002803944516927004,
        0.20213916897773743,
        -0.01372478622943163,
        0.016992434859275818,
        0.06858168542385101,
        0.05885673686861992,
        30.94585418701172,
        -0.001806276966817677,
        0.007368631660938263,
        0.1788027137517929,
        0.2903926372528076,
        -0.18340829014778137,
        0.29184746742248535,
        0.0002115472307195887,
        0.0012783012352883816,
        -0.10341107845306396,
        -2.002364158630371,
        0.4142949879169464,
        -0.08397866040468216,
        0.045077260583639145,
        -0.5315043926239014,
        0.6992621421813965,
        0.029227297753095627,
        0.0014297221787273884,
        -0.0021942767780274153,
        -0.9659162163734436,
        -0.0028372653760015965,
        -0.0006832943181507289,
        -0.5110345482826233,
        0.16376125812530518,
        -1.4710460901260376,
        -0.014671336859464645,
        0.060273442417383194,
        0.41225823760032654,
        3.9031620025634766,
        -0.020258337259292603,
        4.375677585601807,
        -0.018864070996642113,
        0.7948731780052185,
        5.233993053436279,
        -0.2161426991224289,
        3.461026906967163,
        3.031078577041626,
        0.027734845876693726,
        3.755923271179199,
        0.0519256629049778,
        0.01765282265841961,
        0.11743536591529846,
        0.14118702709674835,
        0.2917182445526123,
        -0.024288704618811607,
        -0.02331920713186264,
        -0.8529114723205566,
        5.822091579437256,
        -0.8711985945701599,
        4.686675548553467,
        0.01298398245126009,
        0.03524627536535263,
        -0.19056636095046997,
        10.458721160888672,
        0.10776329785585403,
        -0.034098271280527115,
        -0.04456983506679535,
        -0.4125165045261383,
        0.2395382523536682,
        -0.024197574704885483,
        0.06210936978459358,
        0.19767527282238007,
        -0.48316332697868347,
        0.06475759297609329,
        -0.007768556475639343,
        -0.3776613473892212,
        -0.010827608406543732,
        0.12166418880224228,
        0.05328303575515747,
        0.02466759644448757,
        -0.06426424533128738,
        -0.8597049713134766,
        0.04835528880357742,
        -1.32417893409729,
        0.04590892046689987,
        8.270770072937012,
        -0.07822012156248093,
        -0.020724419504404068,
        0.1508740931749344,
        -2.8145411014556885,
        -0.033838797360658646,
        -0.03867402300238609,
        -0.35646018385887146,
        0.029226159676909447,
        0.11831257492303848,
        0.07934298366308212,
        4.8870015144348145,
        -0.0021536373533308506,
        0.09758885204792023,
        -0.5057689547538757,
        -1.9237720966339111,
        -3.3986034393310547,
        -2.3798060417175293,
        0.12215586006641388,
        0.016596220433712006,
        -0.20230956375598907,
        -14.59333324432373,
        -0.19555918872356415,
        0.3646743893623352,
        -0.04511784017086029,
        0.050586067140102386,
        0.6684919595718384,
        -0.07336944341659546,
        0.020401431247591972,
        0.09259254485368729,
        -0.5634472966194153,
        0.8066264986991882,
        0.005804311018437147,
        0.13802745938301086,
        -0.33308833837509155,
        -0.07334042340517044,
        0.037867508828639984,
        -1.2711366415023804,
        -0.16223683953285217,
        -1.6707526445388794,
        0.015104718506336212,
        0.00012045235052937642,
        -0.015845291316509247,
        -0.35184043645858765,
        0.026227394118905067,
        2.5210635662078857,
        -0.5621709227561951,
        -0.9039928913116455,
        -0.23305439949035645,
        -5.610805034637451,
        -0.40244126319885254,
        0.23671716451644897,
        2.413809299468994,
        -1.0939996242523193,
        0.07876294106245041,
        -0.011757462285459042,
        -0.09055493026971817,
        1.0432384014129639,
        2.39815092086792,
        1.8797783851623535,
        -6.461230278015137,
        0.9868638515472412,
        -1.0603792667388916,
        -0.22718074917793274,
        -2.4973411560058594,
        -0.30695948004722595,
        0.02510140836238861,
        0.012088405899703503,
        -0.1074613705277443,
        0.08613231033086777,
        -0.003477419726550579,
        0.004170647356659174,
        0.016387933865189552,
        -0.32002994418144226,
        0.03949575498700142,
        -0.003623449942097068,
        -0.28943830728530884,
        0.26643693447113037,
        0.041741035878658295,
        0.0011699756141752005,
        0.14069390296936035,
        0.23019637167453766,
        1.310385823249817,
        -0.023407846689224243,
        1.0638130903244019,
        -0.013224433176219463,
        0.5853369235992432,
        0.9220885634422302,
        -0.05016089975833893,
        -0.03902307152748108,
        0.05890247970819473,
        0.06769751012325287,
        2.991807699203491,
        1.2231734991073608,
        0.008762375451624393,
        0.05030097812414169,
        -0.0501161590218544,
        3.3923890590667725,
        -0.015150733292102814,
        -1.2841010093688965,
        -0.05314164608716965,
        0.9301657676696777,
        0.25561073422431946,
        0.9975104331970215,
        0.032278504222631454,
        -0.029362916946411133,
        -0.06660764664411545,
        17.079471588134766,
        -0.30673548579216003,
        -0.3188841938972473,
        0.033252399414777756,
        0.5829290151596069,
        -1.5294435024261475,
        -0.4306289851665497,
        -0.43131783604621887,
        0.5930452346801758,
        -1.3179723024368286,
        -0.177622988820076,
        0.011648762971162796,
        -0.06680747121572495,
        -0.6631969809532166,
        -0.054021596908569336,
        -0.2344394326210022,
        0.4024006724357605,
        -1.095971941947937,
        -3.536344289779663,
        -0.17997999489307404,
        1.700501561164856,
        -0.07336632162332535,
        3.181262493133545,
        -0.04703671857714653,
        0.06569194048643112,
        2.241689682006836,
        0.3000155985355377,
        0.08486086130142212,
        1.870463490486145,
        -0.3322179913520813,
        0.11226104199886322,
        -1.3758796453475952,
        0.22622443735599518,
        -6.950161457061768,
        0.014048303477466106,
        0.44501012563705444,
        0.5056688189506531,
        1.2592867612838745,
        1.9630481004714966,
        6.5143723487854,
        -0.21977834403514862,
        0.18823377788066864,
        -0.4559634029865265,
        5.386754989624023,
        0.9260677099227905,
        -0.11402735114097595
      ]
    },
    {
      "activation": "rectified",
      "architecture": "dense",
      "bias": [
        2.0346198081970215,
        -0.9652721285820007,
        9.954489707946777,
        -0.13880610466003418,
        1.9667750597000122,
        6.358781814575195,
        -4.6842241287231445,
        -1.8212960958480835,
        -2.1146647930145264,
        0.5431979894638062,
        4.7671709060668945,
        -9.922616958618164,
        10.695756912231445,
        11.879728317260742,
        0.6466216444969177,
        2.7162692546844482
      ],
      "weights": [
        0.18035034835338593,
        0.6860698461532593,
        0.023743225261569023,
        -0.08872558921575546,
        0.18586470186710358,
        -0.2817089259624481,
        -0.24497364461421967,
        -0.2659451365470886,
        0.31517505645751953,
        0.13470494747161865,
        -0.012501544319093227,
        0.3958419859409332,
        0.06247170642018318,
        -0.2436356246471405,
        -0.14533072710037231,
        -0.13430646061897278,
        0.10886889696121216,
        -0.09439356625080109,
        -0.029292963445186615,
        0.05760810524225235,
        0.007722913753241301,
        0.07530228793621063,
        0.09518740326166153,
        0.27496278285980225,
        -0.07120086252689362,
        0.07110048085451126,
        0.11377458274364471,
        0.05523637682199478,
        -0.06608588248491287,
        -0.01475533563643694,
        -0.4214548170566559,
        0.06012498214840889,
        -2.3308589458465576,
        0.45731833577156067,
        0.0011207811767235398,
        -0.01775677502155304,
        -0.8240025043487549,
        -0.2375447154045105,
        0.09875155240297318,
        0.6974259614944458,
        0.06518739461898804,
        0.09288028627634048,
        -0.44882139563560486,
        0.15333180129528046,
        -0.058989156037569046,
        -0.13209106028079987,
        -0.021074017509818077,
        0.3844335675239563,
        -0.2956540882587433,
        -0.026805320754647255,
        0.051036592572927475,
        -0.06286081671714783,
        0.27970054745674133,
        0.41372668743133545,
        1.0763179063796997,
        -0.205634206533432,
        0.07436545938253403,
        0.01596658118069172,
        -0.5267934203147888,
        0.012551930733025074,
        -0.3412550091743469,
        -0.11126787960529327,
        0.575197696685791,
        -0.22071243822574615,
        0.13810290396213531,
        -0.43651628494262695,
        -0.15814325213432312,
        -0.07374893873929977,
        0.12183963507413864,
        0.05015832558274269,
        0.10094950348138809,
        -0.19947607815265656,
        -0.4706863760948181,
        0.13870999217033386,
        -0.8213018774986267,
        0.12822206318378448,
        -0.027013111859560013,
        0.09704584628343582,
        -0.16021305322647095,
        0.8785487413406372,
        0.3850235044956207,
        -0.018426861613988876,
        0.11213831603527069,
        0.10770194232463837,
        0.16832377016544342,
        0.4299332797527313,
        -0.2976626753807068,
        -0.4040834605693817,
        -0.14562593400478363,
        -0.1887388527393341,
        0.32650962471961975,
        0.03570348024368286,
        0.3142685294151306,
        0.1631464660167694,
        0.09320675581693649,
        0.0032202512957155704,
        0.2509562373161316,
        -0.9328656792640686,
        0.12658782303333282,
        -0.0032060141675174236,
        0.22810548543930054,
        0.9256640076637268,
        -0.27644506096839905,
        -0.3620673716068268,
        0.28990885615348816,
        0.13449621200561523,
        -0.0742102712392807,
        0.32550427317619324,
        -0.026631709188222885,
        0.3984640836715698,
        0.03045506216585636,
        0.08888842165470123,
        -0.7878544926643372,
        -0.05370635539293289,
        0.04707898572087288,
        -0.05163472890853882,
        0.15829209983348846,
        -0.7848423719406128,
        0.10249544680118561,
        0.1870148628950119,
        0.09943029284477234,
        0.09699487686157227,
        2.179847478866577,
        -0.07711322605609894,
        -0.30068930983543396,
        -0.011348789557814598,
        -0.33131933212280273,
        0.02798919379711151,
        -0.007506673689931631,
        -0.09898467361927032,
        0.1824137419462204,
        -0.4753406345844269,
        0.14099688827991486,
        0.07041275501251221,
        -0.1972780078649521,
        -0.0242601465433836,
        0.011110903695225716,
        0.21681083738803864,
        -0.09012708067893982,
        -0.07586942613124847,
        -0.0220013540238142,
        0.3922711908817291,
        -0.11875926703214645,
        0.020817652344703674,
        0.1951475739479065,
        0.07798445969820023,
        0.22550584375858307,
        -0.28798285126686096,
        -0.1481238603591919,
        -0.49542704224586487,
        0.08873555809259415,
        -0.08588454872369766,
        -0.12355812638998032,
        1.0200269222259521,
        0.19673636555671692,
        0.11256832629442215,
        0.7045829892158508,
        0.031943365931510925,
        -0.006316834595054388,
        -0.07812754064798355,
        0.04255002364516258,
        -0.02517310157418251,
        0.04674641415476799,
        -0.3104517459869385,
        -0.18130306899547577,
        0.04560322314500809,
        0.10334055870771408,
        0.08734918385744095,
        0.11421708762645721,
        0.5970941185951233,
        0.007849889807403088,
        -0.039812278002500534,
        0.03297228366136551,
        0.025558538734912872,
        0.04400627315044403,
        0.10191169381141663,
        -0.23837986588478088,
        0.14020805060863495,
        -0.25677281618118286,
        -0.08067966997623444,
        0.050921689718961716,
        0.7589284181594849,
        0.0055323028936982155,
        -0.09376953542232513,
        0.3394544720649719,
        0.49142369627952576,
        -0.5797443389892578,
        0.06576672941446304,
        -0.3195997476577759,
        -0.17641332745552063,
        -0.02811914123594761,
        0.17056749761104584,
        -0.066585473716259,
        0.2655962407588959,
        -0.2169676423072815,
        0.48912182450294495,
        0.3500174582004547,
        0.6313735246658325,
        -0.13638918101787567,
        -0.26927924156188965,
        -0.3874422013759613,
        -0.48358574509620667,
        0.2876783609390259,
        -0.3322066366672516,
        0.2421034872531891,
        -0.1319100558757782,
        0.10757295042276382,
        0.3202695846557617,
        -0.3051387667655945,
        -0.2117382138967514,
        0.10188568383455276,
        0.3252662718296051,
        -0.14409779012203217,
        -0.037950266152620316,
        -0.45474156737327576,
        -0.14029689133167267,
        -0.045512355864048004,
        0.01076046284288168,
        -0.8325665593147278,
        -0.09960012137889862,
        0.3378923237323761,
        0.08845379948616028,
        -0.04765649512410164,
        -0.05729387328028679,
        -0.09504733979701996,
        -0.25974369049072266,
        -0.10392484813928604,
        -0.9974462985992432,
        0.4008735120296478,
        -0.17285685241222382,
        0.2063816338777542,
        -0.3688420057296753,
        0.3009083569049835,
        0.43625181913375854,
        0.5537927746772766,
        0.20506657660007477,
        -0.21390697360038757,
        -0.27015796303749084,
        -0.25374722480773926,
        0.500426709651947,
        -0.10108973830938339,
        0.36373189091682434,
        0.4555545151233673,
        -0.845476508140564,
        -0.16548705101013184,
        0.7009314894676208,
        0.09299033880233765,
        0.4852351248264313,
        0.021514253690838814,
        0.12386729568243027,
        -0.2856743335723877,
        0.015022875741124153,
        -0.22021900117397308,
        0.1325298547744751,
        -0.014251984655857086,
        -0.09242378175258636,
        -0.013421034440398216,
        -0.08262065052986145,
        -0.16331985592842102,
        0.13584086298942566,
        0.35422804951667786,
        0.13569791615009308,
        -0.07780268788337708,
        -0.4055308699607849,
        -0.007202304434031248,
        1.174587607383728,
        -0.1741514652967453,
        -0.5724560022354126,
        0.08154360204935074,
        0.5201327204704285,
        0.1333533525466919,
        0.3759954273700714,
        0.6101502776145935,
        -0.3299958407878876,
        0.16114558279514313,
        0.2063525766134262,
        0.06082705408334732,
        0.30756089091300964,
        0.41334038972854614,
        -0.18965370953083038,
        0.4125599265098572,
        0.33354514837265015,
        -0.15885549783706665,
        -0.12684527039527893,
        -0.3001909852027893,
        0.012525158934295177,
        -0.10466344654560089,
        -0.12109711766242981,
        -0.10759016871452332,
        -0.30453428626060486,
        -0.30408015847206116,
        0.5647475123405457,
        0.4868135154247284,
        0.40470173954963684,
        -0.1895270198583603,
        -0.3298652470111847,
        -0.05091691389679909,
        0.8665891289710999,
        0.06819774210453033,
        0.5478129982948303,
        0.3607938587665558,
        -0.05302786827087402,
        -0.12437374144792557,
        -0.5983657240867615,
        0.3191232979297638,
        -0.6009679436683655,
        -0.17798978090286255,
        1.0438673496246338,
        -0.23946215212345123,
        0.14994099736213684,
        0.23088957369327545,
        0.37156230211257935,
        -0.01669039949774742,
        0.28592151403427124,
        0.5111103057861328,
        -0.04300535097718239,
        0.021182110533118248,
        0.35639840364456177,
        0.18301206827163696,
        -0.1858806312084198,
        0.1611001044511795,
        -0.13202643394470215,
        0.07261096686124802,
        -0.09443431347608566,
        0.32212144136428833,
        -0.2682158946990967,
        0.1089402288198471,
        -0.7845333814620972,
        -0.003505502827465534,
        -0.5250077843666077,
        0.31899937987327576,
        0.6025439500808716,
        0.3254125714302063,
        -0.4204564094543457,
        -0.1194453239440918,
        0.09497331827878952,
        0.6783275604248047,
        -0.28933414816856384,
        0.05759783834218979,
        0.24883942306041718,
        0.07287194579839706,
        0.029123179614543915,
        0.22796157002449036,
        -1.110500454902649,
        -0.05714469775557518,
        0.19842314720153809,
        -0.6159139275550842,
        0.13935375213623047,
        -0.9634706974029541,
        -0.023650631308555603,
        -0.03884712979197502,
        -0.2630321681499481,
        -0.017636263743042946,
        0.2525457441806793,
        0.033912014216184616,
        -0.2518031895160675,
        -0.49709078669548035,
        0.3855597972869873,
        0.09261031448841095,
        0.31492042541503906,
        -0.1168525442481041,
        -0.18211019039154053,
        -0.19120950996875763,
        0.4511494040489197,
        -0.051049210131168365,
        0.1414737105369568,
        0.02801469713449478,
        0.3651905059814453,
        0.29510918259620667,
        0.2024228572845459,
        0.010209308005869389,
        -0.36605387926101685,
        0.26313599944114685,
        -0.6007420420646667,
        0.5656278729438782,
        -0.10029824823141098,
        0.05120166763663292,
        0.033306192606687546,
        1.1751129627227783,
        -0.025504330173134804,
        -0.5974910259246826,
        -0.1229526549577713,
        0.47406089305877686,
        0.10583721101284027,
        -0.07706017792224884,
        -0.11504781246185303,
        0.09852278232574463,
        -0.12747973203659058,
        0.5974076986312866,
        -0.4061107337474823,
        -0.09350884705781937,
        -0.31280985474586487,
        0.21829526126384735,
        -0.13261717557907104,
        0.2678135335445404,
        0.04680909216403961,
        -0.07196985930204391,
        0.46506547927856445,
        0.05117570608854294,
        0.3400321900844574,
        -0.25445425510406494,
        0.4575205147266388,
        0.048582661896944046,
        -0.2910447120666504,
        -0.32751283049583435,
        -0.0254113357514143,
        0.40104252099990845,
        -0.09628736972808838,
        0.1358395516872406,
        -0.18789073824882507,
        -0.1600261926651001,
        -0.10723751783370972,
        0.813746452331543,
        -0.043764516711235046,
        0.10929345339536667,
        -0.08508443832397461,
        -0.0053728437051177025,
        0.4031311869621277,
        -0.06483231484889984,
        -0.03996730595827103,
        0.32089370489120483,
        -0.8719108700752258,
        0.3525923192501068,
        -0.37274590134620667,
        0.1305796504020691,
        -0.10225091129541397,
        -0.23689347505569458,
        0.0610671192407608,
        0.04334471747279167,
        0.45705631375312805,
        -0.021533994004130363,
        -0.030506037175655365,
        -0.0036346365232020617,
        -0.18731701374053955,
        -0.01094946451485157,
        0.004204712808132172,
        -0.11129898577928543,
        -0.23877660930156708,
        0.230958491563797,
        0.46756213903427124,
        -0.00685841403901577,
        -0.18167586624622345,
        0.8787618279457092,
        -0.04163074865937233,
        -0.16449211537837982,
        0.032554589211940765,
        0.6166067719459534,
        0.17145776748657227,
        0.10604621469974518,
        -0.23963500559329987,
        0.027901699766516685,
        -0.20790459215641022,
        0.1308329701423645,
        0.025638731196522713,
        0.035050876438617706,
        -0.0841880515217781,
        0.7980202436447144,
        0.4676191508769989,
        -0.24324415624141693,
        0.32163962721824646,
        0.019680123776197433,
        0.862991988658905,
        0.0906972885131836,
        0.09858398139476776,
        0.23179566860198975,
        -0.11287321895360947,
        0.049138691276311874,
        -0.38727450370788574,
        -0.16552478075027466,
        0.34308940172195435,
        -0.2846621870994568,
        -0.02392037771642208,
        -0.9353383183479309,
        -0.2743081748485565,
        0.7561078071594238,
        0.22687304019927979,
        -0.22476188838481903,
        0.21631823480129242,
        0.28935351967811584,
        -0.022459357976913452,
        -0.03319230303168297,
        -0.44914424419403076,
        0.1183820515871048,
        -0.06405650079250336,
        0.09256158024072647,
        -0.0947798639535904,
        0.005527338944375515,
        -0.11696751415729523,
        -0.7582066655158997,
        0.06799957156181335,
        -0.2682444453239441,
        -0.3449677526950836,
        -0.02774163708090782,
        -0.05293606221675873,
        -0.11205646395683289,
        1.084999918937683,
        0.12993933260440826,
        0.13337959349155426,
        -0.06211278587579727,
        0.20751097798347473,
        -0.039212144911289215,
        0.49397850036621094,
        0.11261758953332901,
        -0.25417688488960266,
        0.8028069734573364,
        0.1533464938402176,
        -0.5866902470588684,
        -3.5568294525146484,
        0.4004940688610077,
        -0.41904523968696594,
        -0.04463489353656769,
        0.10717553645372391
      ]
    },
    {
      "activation": "rectified",
      "architecture": "dense",
      "bias": [
        5.46159029006958,
        9.753016471862793,
        -12.879525184631348,
        -2.274099826812744,
        -6.777645111083984,
        2.4176015853881836,
        -10.164021492004395,
        -10.270452499389648,
        -0.10194987058639526,
        -5.177696228027344,
        -9.58288288116455,
        2.2574429512023926,
        7.164987564086914,
        -4.965225696563721,
        -2.186333179473877,
        -3.061995267868042
      ],
      "weights": [
        -0.20975078642368317,
        -0.10867104679346085,
        0.06409469246864319,
        -0.1036633625626564,
        -0.12550632655620575,
        -0.2960396707057953,
        0.0898645892739296,
        0.13635556399822235,
        0.36835724115371704,
        0.35299697518348694,
        0.09053901582956314,
        -0.08656088262796402,
        -0.21934223175048828,
        0.17337961494922638,
        -0.16621315479278564,
        0.8098349571228027,
        -0.04940972104668617,
        -0.0631028413772583,
        0.11281488835811615,
        -0.18626666069030762,
        0.0012821921845898032,
        -0.03726993873715401,
        0.10890579968690872,
        0.0732465460896492,
        -0.018868958577513695,
        0.021366406232118607,
        0.26875925064086914,
        -0.5004643201828003,
        0.5210797786712646,
        0.48233792185783386,
        0.16724905371665955,
        -0.1180504560470581,
        -0.0640256479382515,
        -0.09883496165275574,
        -0.1347189098596573,
        -0.006372850388288498,
        -0.0261975284665823,
        -0.08936727792024612,
        -0.07332171499729156,
        -0.010296153835952282,
        0.0836799144744873,
        0.11846029758453369,
        -0.029652168974280357,
        0.42244917154312134,
        0.022686747834086418,
        0.10849771648645401,
        -0.002839360386133194,
        0.01121276244521141,
        -0.5566005706787109,
        1.2878998517990112,
        -0.007913254201412201,
        0.730282187461853,
        0.06747468560934067,
        0.22168253362178802,
        0.2275671362876892,
        0.07439006865024567,
        -0.3025819957256317,
        0.08315984904766083,
        0.09327022731304169,
        -0.3845286965370178,
        0.1407521367073059,
        0.461860328912735,
        0.026806071400642395,
        0.10615548491477966,
        -0.5863528847694397,
        -0.38085973262786865,
        -0.10479889810085297,
        -0.20118200778961182,
        0.10774685442447662,
        0.10692811757326126,
        0.24634866416454315,
        0.09899773448705673,
        -0.28812482953071594,
        0.30790403485298157,
        -0.3854186534881592,
        0.7895798087120056,
        -0.3630532920360565,
        -0.8329507112503052,
        0.08835171908140182,
        0.18395036458969116,
        -0.05820382386445999,
        -0.05288199335336685,
        0.0962611734867096,
        -0.06078392267227173,
        0.1112733706831932,
        0.3072067201137543,
        -0.10189393907785416,
        -0.021435312926769257,
        0.17559745907783508,
        0.637556791305542,
        0.20223160088062286,
        -0.3740045726299286,
        -0.0720093697309494,
        0.14997965097427368,
        0.06587124615907669,
        0.02358228899538517,
        0.14936621487140656,
        -0.014499149285256863,
        -0.0011450612219050527,
        0.18153366446495056,
        -0.03613482043147087,
        -0.1422675997018814,
        0.1651764065027237,
        -0.025653135031461716,
        0.10871364176273346,
        0.021894890815019608,
        -0.1194445937871933,
        0.4690007269382477,
        -0.19579660892486572,
        -0.46917110681533813,
        -0.009254571981728077,
        -0.0012919094879180193,
        -0.21873092651367188,
        0.08179707080125809,
        -0.3411100506782532,
        -0.0693732425570488,
        0.49493739008903503,
        -0.7676194906234741,
        0.027378855273127556,
        0.2424793541431427,
        0.5640135407447815,
        -0.3339022696018219,
        0.006236550398170948,
        -0.1957959085702896,
        -0.27545166015625,
        -0.0066094533540308475,
        0.0007475122110918164,
        0.056421950459480286,
        -0.35075393319129944,
        0.08618055284023285,
        -0.21315538883209229,
        -0.17931455373764038,
        0.12747332453727722,
        0.26720568537712097,
        -0.1655098795890808,
        0.014974633231759071,
        0.36108219623565674,
        -0.020316118374466896,
        0.010186821222305298,
        -0.3952177166938782,
        0.0705091804265976,
        0.15741319954395294,
        -0.2685384154319763,
        -1.080971598625183,
        -0.13534195721149445,
        0.08310920000076294,
        -0.438890665769577,
        0.037809666246175766,
        -0.09172874689102173,
        0.15844671428203583,
        0.5194254517555237,
        0.059343189001083374,
        0.307670533657074,
        0.04676509276032448,
        0.2427629977464676,
        0.041084177792072296,
        0.38396358489990234,
        0.2318364679813385,
        -0.4953530728816986,
        0.6383302211761475,
        0.24187135696411133,
        0.040932152420282364,
        -0.0001836574519984424,
        0.05909169837832451,
        -0.518742561340332,
        0.12921549379825592,
        -0.09407682716846466,
        0.7484960556030273,
        -0.40870365500450134,
        0.25577670335769653,
        -0.032386280596256256,
        0.11933212727308273,
        -0.17126163840293884,
        -0.12518179416656494,
        0.06643323600292206,
        -0.23218490183353424,
        0.32326850295066833,
        0.004505529534071684,
        0.39992251992225647,
        -0.016102714464068413,
        0.33521223068237305,
        -0.22195841372013092,
        0.18880444765090942,
        -0.07727067172527313,
        -0.4771325886249542,
        0.4292650520801544,
        0.16074338555335999,
        -0.07214376330375671,
        0.14840781688690186,
        0.0884435847401619,
        -0.4930768311023712,
        0.15507471561431885,
        -0.47689273953437805,
        -0.277481347322464,
        -0.05489291995763779,
        0.18213969469070435,
        0.007165879476815462,
        -0.11400947719812393,
        -0.12454313039779663,
        0.02086443081498146,
        -0.026664532721042633,
        0.2507048547267914,
        -0.01252211444079876,
        0.7175530791282654,
        0.05161786079406738,
        -0.6438478827476501,
        -0.09561215341091156,
        -0.26249366998672485,
        0.05516979470849037,
        -0.0059753768146038055,
        0.31979259848594666,
        -0.3860686123371124,
        0.07652433216571808,
        0.43487274646759033,
        0.4382082521915436,
        -0.009508072398602962,
        -0.24791519343852997,
        -0.2290138602256775,
        0.17043352127075195,
        -0.9330819249153137,
        0.24199475347995758,
        1.105588436126709,
        0.08177080750465393,
        -0.07025324553251266,
        -0.10104376822710037,
        -0.1299918293952942,
        -0.09902506321668625,
        -6.453308742493391e-05,
        0.4618077874183655,
        -0.18520620465278625,
        -0.10849762707948685,
        0.5280054211616516,
        0.26465073227882385,
        -0.22168900072574615,
        0.05212102457880974,
        0.24750231206417084,
        0.08806817978620529,
        -0.10101180523633957,
        0.1896119862794876,
        0.21894097328186035,
        -0.4470776319503784,
        0.6018157601356506,
        -0.7824220061302185,
        -2.4636735916137695,
        0.02535397745668888,
        -0.3447476923465729,
        -0.5442166924476624,
        0.10839700698852539,
        0.10635124891996384,
        0.2737047076225281,
        -0.3278149962425232,
        -0.4158877432346344,
        0.39121711254119873,
        0.15283118188381195,
        0.02376641519367695,
        -0.15902957320213318
      ]
    },
    {
      "activation": "rectified",
      "architecture": "dense",
      "bias": [
        -2.982060194015503,
        5.834131240844727,
        0.267240047454834,
        -0.7885972261428833,
        10.002693176269531,
        1.184349775314331,
        -1.281038761138916,
        -9.212504386901855,
        3.3787248134613037,
        8.552430152893066,
        -4.311670303344727,
        -9.35341739654541,
        -4.428922653198242,
        8.34870719909668,
        7.43418550491333,
        2.0000548362731934
      ],
      "weights": [
        -0.17037296295166016,
        -0.03433740511536598,
        0.1215689554810524,
        -0.08084030449390411,
        -0.04203248396515846,
        0.14301913976669312,
        0.1018158495426178,
        0.17840027809143066,
        -0.13303342461585999,
        0.09943658113479614,
        -0.03726823255419731,
        0.7423362135887146,
        -0.04829958826303482,
        -0.000669537577778101,
        -0.07447287440299988,
        0.19160404801368713,
        0.5318973064422607,
        -0.00016166710702236742,
        -0.10801960527896881,
        0.15008020401000977,
        -0.10162238776683807,
        -0.372359961271286,
        0.00838605035096407,
        -0.3133218586444855,
        0.2403126358985901,
        0.003250537207350135,
        -0.10377460718154907,
        0.25863271951675415,
        0.40659984946250916,
        0.00046747998567298055,
        0.14587482810020447,
        0.49073976278305054,
        -0.16417981684207916,
        -0.02987898513674736,
        -0.09004674851894379,
        0.1238752007484436,
        0.18901342153549194,
        0.05696381255984306,
        -0.23453032970428467,
        -0.6532928347587585,
        0.12928453087806702,
        -0.03717435896396637,
        -0.17576944828033447,
        -0.003501191968098283,
        -0.06071800738573074,
        0.08840406686067581,
        0.7481560707092285,
        0.030246449634432793,
        0.1771562248468399,
        0.28193962574005127,
        0.013117033056914806,
        0.038742028176784515,
        -0.09702567756175995,
        0.0723002627491951,
        0.2595765292644501,
        -0.2668911814689636,
        -0.5807429552078247,
        0.08312229067087173,
        0.13062609732151031,
        0.033266548067331314,
        -0.07402672618627548,
        -0.1887942999601364,
        -1.3190582990646362,
        0.36003363132476807,
        -0.06275151669979095,
        0.4355555772781372,
        -0.42461806535720825,
        -0.36348631978034973,
        -0.07666374742984772,
        -0.024318544194102287,
        -0.060136470943689346,
        -0.046813540160655975,
        0.16154351830482483,
        0.11063635349273682,
        -0.017920248210430145,
        0.02253812365233898,
        -0.21996574103832245,
        -0.2436852604150772,
        -0.06807973235845566,
        0.25674203038215637,
        -0.1158638522028923,
        0.37974995374679565,
        -0.07957122474908829,
        -0.2536277174949646,
        -0.17933431267738342,
        -0.10102226585149765,
        -0.18469682335853577,
        -0.09635497629642487,
        -0.1846717894077301,
        0.6453098654747009,
        -0.3363209366798401,
        -0.14177033305168152,
        0.193931445479393,
        -0.27802613377571106,
        -0.05792410671710968,
        -0.04378073289990425,
        -0.3484022915363312,
        -0.6641991138458252,
        -0.13629858195781708,
        0.5844475626945496,
        0.12983296811580658,
        -0.8274989128112793,
        0.26936691999435425,
        -0.19679118692874908,
        -0.4720119535923004,
        -0.1351691335439682,
        -0.007828912697732449,
        0.018534215167164803,
        0.1688818633556366,
        0.07915277034044266,
        -0.16234946250915527,
        -0.18506404757499695,
        0.12620505690574646,
        0.06522252410650253,
        0.13191558420658112,
        -0.6328046917915344,
        0.19786664843559265,
        -0.05620935186743736,
        0.3954899311065674,
        -0.06207321211695671,
        -0.007527261506766081,
        0.040875207632780075,
        -0.03432699665427208,
        0.0032036874908953905,
        -0.05671830475330353,
        0.19348309934139252,
        0.02966325171291828,
        0.012729642912745476,
        0.37984147667884827,
        0.08211410790681839,
        -0.015415491536259651,
        0.22649605572223663,
        -0.02189173549413681,
        -0.05258641019463539,
        0.14331527054309845,
        0.016738679260015488,
        -0.15258891880512238,
        -0.28412169218063354,
        0.06777559220790863,
        0.08675222098827362,
        0.49756520986557007,
        -0.12390374392271042,
        -0.093144990503788,
        -0.49592897295951843,
        0.4931817054748535,
        0.4108045995235443,
        -0.5568917393684387,
        0.06304481625556946,
        0.0006375164375640452,
        -0.23124277591705322,
        -0.8044425845146179,
        -0.02403162233531475,
        0.16485890746116638,
        -0.08783681690692902,
        -0.1277143359184265,
        0.0027482672594487667,
        0.616588294506073,
        -0.22359038889408112,
        -0.056697458028793335,
        0.17557092010974884,
        -0.3073483407497406,
        -1.5242936611175537,
        0.6915209293365479,
        0.2663039565086365,
        0.4697667360305786,
        -0.214956596493721,
        0.1790110021829605,
        0.597540020942688,
        0.7629566788673401,
        -0.16149085760116577,
        0.02230537310242653,
        -0.2413850575685501,
        -0.1824965476989746,
        0.7097820043563843,
        -0.30030256509780884,
        0.19507744908332825,
        -0.012737149372696877,
        -0.19180843234062195,
        0.08642023801803589,
        0.3118801712989807,
        0.135343998670578,
        0.3322755992412567,
        0.2241572141647339,
        -0.05485103279352188,
        0.10144378244876862,
        0.14144881069660187,
        0.0060967677272856236,
        -0.060622770339250565,
        0.22057776153087616,
        0.01257370039820671,
        0.07102161645889282,
        0.23034818470478058,
        0.39955398440361023,
        -0.009928608313202858,
        -0.15435123443603516,
        -0.012768050655722618,
        -0.10451640188694,
        -0.21854567527770996,
        0.01677984930574894,
        -0.659673810005188,
        0.11411409825086594,
        0.020325902849435806,
        0.9935709834098816,
        0.03954194858670235,
        0.09515009075403214,
        0.022094380110502243,
        0.28735285997390747,
        0.0008824609685689211,
        -0.08626493066549301,
        -0.2432365119457245,
        -1.5524133443832397,
        -0.0445672944188118,
        0.09999297559261322,
        0.026885706931352615,
        0.31642282009124756,
        0.02696743607521057,
        -0.04860439524054527,
        0.053985074162483215,
        -0.005986959207803011,
        -0.03729218244552612,
        0.03305938467383385,
        0.0655749961733818,
        -0.006115670781582594,
        -0.13080234825611115,
        0.24071817100048065,
        0.07957219332456589,
        -0.06162148341536522,
        -0.2666648030281067,
        -0.08915066719055176,
        0.4368685781955719,
        -0.22059929370880127,
        -0.10241532325744629,
        0.10586442798376083,
        0.015744689851999283,
        0.01765262708067894,
        -0.02458871901035309,
        -0.05452035740017891,
        -0.06483898311853409,
        0.07403425127267838,
        0.24379616975784302,
        0.1423885077238083,
        -0.3048822581768036,
        -0.30084964632987976,
        -0.8717151880264282,
        -0.8817077279090881,
        -0.13658370077610016,
        -0.9419445991516113,
        -0.17436915636062622,
        0.07319130748510361,
        0.6783531904220581,
        -0.19429132342338562,
        0.1552405059337616,
        -0.6734631657600403,
        -0.22992326319217682,
        0.06278327852487564,
        0.13978169858455658
      ]
    },
    {
      "activation": "rectified",
      "architecture": "dense",
      "bias": [
        6.321056365966797,
        5.211848258972168,
        4.290241718292236,
        -2.0320260524749756,
        -3.4025309085845947,
        5.73007869720459,
        -2.441779136657715,
        -0.14604957401752472,
        -0.772140383720398,
        -7.639742374420166,
        3.089409828186035,
        1.456752896308899,
        5.418367862701416,
        6.066452980041504,
        -0.2159276306629181,
        -0.2424629032611847
      ],
      "weights": [
        0.0595516636967659,
        0.05294206365942955,
        -0.009506725706160069,
        -0.08088415861129761,
        0.07411939650774002,
        0.15127426385879517,
        -0.3462963402271271,
        -0.7561644315719604,
        0.14911042153835297,
        -0.1727125346660614,
        -1.3616247177124023,
        -0.6302878260612488,
        0.07490774244070053,
        0.23527713119983673,
        0.5805405378341675,
        -0.2741464078426361,
        -0.07532218843698502,
        0.6801308393478394,
        0.25440746545791626,
        -0.29103782773017883,
        0.6217650771141052,
        0.06098990887403488,
        -0.387618750333786,
        -0.2782234251499176,
        -0.051301803439855576,
        -0.04905357211828232,
        -0.27668002247810364,
        -0.6930680274963379,
        -0.45205259323120117,
        0.3027696907520294,
        0.13456106185913086,
        -0.11072924733161926,
        -0.12530595064163208,
        -0.10767950117588043,
        -0.18023541569709778,
        0.058300189673900604,
        0.43847766518592834,
        -0.27754130959510803,
        -0.23121729493141174,
        -0.051880087703466415,
        0.009028850123286247,
        0.10406101495027542,
        -0.1616899073123932,
        0.3792029023170471,
        0.07704361528158188,
        -0.1609390377998352,
        0.543519139289856,
        -0.013453803956508636,
        0.6478622555732727,
        -0.20281170308589935,
        -0.20566992461681366,
        0.07668488472700119,
        0.20957040786743164,
        0.17983219027519226,
        -0.06682243943214417,
        0.09854314476251602,
        0.0498826690018177,
        -0.0266166552901268,
        -0.037688933312892914,
        0.26790207624435425,
        0.11033622175455093,
        0.0702538788318634,
        0.057097453624010086,
        -0.1648852527141571,
        -0.03502504900097847,
        -0.003974870312958956,
        0.13040988147258759,
        -0.03712087869644165,
        -0.41363635659217834,
        0.05835665017366409,
        0.00591068621724844,
        0.1447477638721466,
        -0.339775949716568,
        -0.19393815100193024,
        -0.3371754288673401,
        0.5549266338348389,
        -0.1344325840473175,
        -0.23218326270580292,
        0.16041748225688934,
        -0.101997971534729,
        0.08170487731695175,
        0.021934468299150467,
        0.0915616825222969,
        -0.1025831326842308,
        -0.36883026361465454,
        -0.16727598011493683,
        0.18769122660160065,
        -0.380484402179718,
        0.32069694995880127,
        0.11408018320798874,
        -1.4557327032089233,
        -0.7733829021453857,
        -0.049492817372083664,
        0.6140609979629517,
        0.37492629885673523,
        -0.05916352942585945,
        -0.37880125641822815,
        -0.1606891006231308,
        -0.22407983243465424,
        0.12175999581813812,
        -0.2692072093486786,
        0.36928558349609375,
        -0.04296440631151199,
        0.13517752289772034,
        -0.16407915949821472,
        -0.21235990524291992,
        0.10628267377614975,
        0.2008184939622879,
        0.5613021850585938,
        0.32732918858528137,
        0.060857273638248444,
        0.38019663095474243,
        -0.5042194128036499,
        -0.16100551187992096,
        -0.30386239290237427,
        -0.4080484211444855,
        -0.42326638102531433,
        0.144722580909729,
        0.18743494153022766,
        -0.13060130178928375,
        -0.41079676151275635,
        0.09368444979190826,
        0.27878284454345703,
        -0.46097031235694885,
        -0.4090800881385803,
        -0.10326191782951355,
        -0.3220098614692688,
        -0.4545843303203583,
        0.2036987692117691,
        0.04226738214492798,
        0.2867153584957123,
        -0.17090189456939697,
        0.2966388165950775,
        -0.4004940688610077,
        0.056099455803632736,
        -0.05047124996781349,
        -0.12031802535057068,
        0.10998041182756424,
        -0.265666127204895,
        0.050531286746263504,
        0.58384770154953,
        -0.33234864473342896,
        -0.04356834664940834,
        -0.24865098297595978,
        0.15499864518642426,
        -0.33490097522735596,
        0.04894932359457016,
        -0.24075660109519958,
        -0.07438266277313232,
        -0.0605042427778244,
        0.27012118697166443,
        0.35448893904685974,
        0.0032800647895783186,
        -0.3381253480911255,
        0.5314188003540039,
        -0.3044351637363434,
        0.04275155067443848,
        0.5800009369850159,
        0.01764918677508831,
        -0.11605553328990936,
        0.3468879163265228,
        0.051911693066358566,
        0.12822067737579346,
        0.2811791002750397,
        0.5559496283531189,
        -0.08843307942152023,
        0.24914579093456268,
        -0.09373372793197632,
        0.04320124536752701,
        0.19838131964206696,
        -0.024038944393396378,
        -0.157893568277359,
        -0.46987009048461914,
        -0.307791531085968,
        0.023196101188659668,
        -0.7668601274490356,
        -0.32887107133865356,
        0.9588502645492554,
        -0.273488849401474,
        0.09357688575983047,
        -0.9920415282249451,
        0.39585739374160767,
        -0.09606564044952393,
        -0.5440061092376709,
        -0.13607540726661682,
        -0.23251765966415405,
        -0.6424676775932312,
        -0.12526574730873108,
        -0.12067615240812302,
        0.3168283998966217,
        0.3238718509674072,
        0.3979598581790924,
        -0.031039999797940254,
        -0.30042707920074463,
        0.4176730811595917,
        -0.11290276050567627,
        0.25336265563964844,
        0.20225538313388824,
        -0.0927988812327385,
        -0.20210430026054382,
        0.36949798464775085,
        -0.18874256312847137,
        0.3044673204421997,
        -0.18430249392986298,
        -0.09097645431756973,
        0.4019322097301483,
        0.36817672848701477,
        0.006417283322662115,
        0.02649589069187641,
        -0.028955060988664627,
        -0.0007867376552894711,
        0.049602217972278595,
        0.5212281942367554,
        0.06274021416902542,
        -0.14378753304481506,
        -0.10087749361991882,
        -0.11621567606925964,
        -0.2688310146331787,
        0.4081496298313141,
        -0.8782387375831604,
        0.030419521033763885,
        0.5955706238746643,
        0.5860501527786255,
        0.11559890955686569,
        -0.4654189944267273,
        -0.14797042310237885,
        -0.34160947799682617,
        0.220292866230011,
        0.21624596416950226,
        0.04493711516261101,
        0.08390255272388458,
        -0.680449366569519,
        -0.2744404375553131,
        0.18565328419208527,
        0.22501778602600098,
        -0.337316632270813,
        -0.4069831669330597,
        -0.19722889363765717,
        -0.42448610067367554,
        0.2001567929983139,
        -0.19999031722545624,
        -0.0866716206073761,
        -0.5372669696807861,
        -0.14050541818141937,
        -0.3541514277458191,
        -0.22533823549747467,
        0.264699250459671,
        -0.022266514599323273,
        -0.11950956284999847,
        0.14667922258377075,
        -0.4663839042186737,
        -0.009879632852971554,
        -0.4921436309814453,
        -0.1128065288066864,
        -0.23174528777599335,
        -0.3461143970489502
      ]
    },
    {
      "activation": "rectified",
      "architecture": "dense",
      "bias": [
        -0.31358712911605835,
        1.3809629678726196,
        3.16093111038208,
        -0.3541809618473053,
        -0.9783518314361572,
        4.42426061630249,
        5.264148712158203,
        -6.506989002227783,
        -3.4025332927703857,
        -6.686956405639648,
        1.328808069229126,
        -1.2602955102920532,
        -3.2053074836730957,
        -0.45588022470474243,
        2.283726453781128,
        -6.5353498458862305
      ],
      "weights": [
        -0.11692287772893906,
        0.03930573910474777,
        -0.3036385774612427,
        -0.09792765974998474,
        -0.06127531826496124,
        -0.021865829825401306,
        -0.5184317827224731,
        -0.07446864247322083,
        -0.1959393322467804,
        0.014991509728133678,
        -0.1551622599363327,
        -0.48208028078079224,
        -0.07735304534435272,
        -0.11930711567401886,
        0.11402182281017303,
        -0.1288607269525528,
        0.4896675944328308,
        -0.04939186945557594,
        0.6313109397888184,
        -0.21755735576152802,
        0.3008269965648651,
        0.2609211504459381,
        0.02233933098614216,
        0.3595956861972809,
        -0.0724867582321167,
        0.10516981780529022,
        0.0008538158726878464,
        0.09087232500314713,
        0.1306072175502777,
        -0.041514985263347626,
        0.44600704312324524,
        -0.15327240526676178,
        0.045917823910713196,
        0.14333811402320862,
        0.13268326222896576,
        -0.10206731408834457,
        -0.5306469202041626,
        -0.1323041021823883,
        -0.013663070276379585,
        0.36087533831596375,
        -0.011907411739230156,
        -0.5155463218688965,
        0.06300465017557144,
        -0.012279985472559929,
        0.5213769674301147,
        0.49191832542419434,
        0.1787502020597458,
        0.08130042254924774,
        0.33418402075767517,
        0.750452995300293,
        -1.1217888593673706,
        -0.5176326632499695,
        -0.27496427297592163,
        -0.4778604805469513,
        0.15252181887626648,
        0.15047520399093628,
        -0.6484169960021973,
        0.10821214318275452,
        0.25572553277015686,
        -0.13521471619606018,
        0.27624374628067017,
        -0.21979647874832153,
        -0.05086444690823555,
        0.092277891933918,
        -0.11908679455518723,
        -0.4502694606781006,
        -0.19674305617809296,
        -0.07276904582977295,
        -0.35556405782699585,
        0.3408260941505432,
        -0.13804489374160767,
        0.34256651997566223,
        -0.5327231884002686,
        0.2174844741821289,
        -0.22937659919261932,
        0.14789804816246033,
        0.18761304020881653,
        -0.4289184510707855,
        0.2377842515707016,
        0.1580614298582077,
        -0.4548407793045044,
        -0.42197445034980774,
        0.27294430136680603,
        -0.014097956009209156,
        -0.5479670166969299,
        0.038522250950336456,
        -0.23926487565040588,
        -0.2854103446006775,
        -0.7765838503837585,
        0.37461403012275696,
        -0.4766821265220642,
        0.5047873854637146,
        -0.06544867902994156,
        0.400461345911026,
        0.013104785233736038,
        -0.1586037278175354,
        -0.05977855995297432,
        0.0018119547748938203,
        0.1697976291179657,
        0.07814610004425049,
        -0.37452179193496704,
        -0.29456856846809387,
        0.022705838084220886,
        -0.1767583042383194,
        0.019906044006347656,
        -0.196332186460495,
        0.10763047635555267,
        0.10548138618469238,
        0.2749432325363159,
        -0.9437866806983948,
        0.15128779411315918,
        0.10539238154888153,
        -0.6864062547683716,
        0.2073848843574524,
        -0.3409951627254486,
        -0.007599131669849157,
        0.19419194757938385,
        0.5598092079162598,
        -0.17077405750751495,
        -0.3330427408218384,
        -0.003982808440923691,
        0.3945901393890381,
        0.04745078086853027,
        0.1578550636768341,
        0.19234807789325714,
        -0.18441173434257507,
        0.041623689234256744,
        0.2019696831703186,
        -1.6305968761444092,
        -0.18038013577461243,
        -0.37833788990974426,
        0.3915020227432251,
        0.005031556822359562,
        -1.3871670961380005,
        0.2533125877380371,
        0.41518643498420715,
        -0.5045185685157776,
        0.32305920124053955,
        -0.20627422630786896,
        -0.14206066727638245,
        0.29674357175827026,
        -0.7175179123878479,
        0.17723678052425385,
        0.052227817475795746,
        0.10922157019376755,
        0.05601406469941139,
        0.0733194649219513,
        0.22944144904613495,
        -0.10186680406332016,
        -0.2771359086036682,
        0.25015565752983093,
        0.14853450655937195,
        0.10442675650119781,
        0.44587022066116333,
        -0.19918422400951385,
        -0.24532008171081543,
        -0.20981189608573914,
        -0.4513889253139496,
        0.08969337493181229,
        0.515093207359314,
        -1.0155789852142334,
        0.09840454161167145,
        -0.9501146674156189,
        0.320596843957901,
        -0.3024739921092987,
        0.13902942836284637,
        0.3670143485069275,
        -0.17537681758403778,
        0.11878673732280731,
        0.40236005187034607,
        0.1317274421453476,
        -0.049422722309827805,
        -0.44902974367141724,
        -0.05130919814109802,
        -0.06386592984199524,
        -0.18223710358142853,
        -0.07734748721122742,
        0.2931472361087799,
        -0.014540953561663628,
        0.24687868356704712,
        0.18596646189689636,
        -0.3826466500759125,
        0.41228121519088745,
        -0.07368943095207214,
        -0.11513166129589081,
        -0.4515991508960724,
        -0.5042293667793274,
        0.1695997267961502,
        0.02969091758131981,
        0.7950146794319153,
        -0.276193767786026,
        0.2452448457479477,
        -0.20405255258083344,
        0.20524579286575317,
        -0.32580122351646423,
        0.13124634325504303,
        0.27037009596824646,
        -0.2078222632408142,
        0.025656893849372864,
        -0.3189723789691925,
        0.2933264374732971,
        0.023965558037161827,
        -0.03323638439178467,
        -0.06899220496416092,
        0.5221311450004578,
        -0.07934436947107315,
        0.030902430415153503,
        -0.005026059690862894,
        0.34521397948265076,
        -0.14503143727779388,
        0.03429952636361122,
        0.5595670342445374,
        0.04611503705382347,
        0.24952678382396698,
        -0.14655788242816925,
        -0.2676626145839691,
        -0.04083006829023361,
        -0.2493552565574646,
        0.1563360095024109,
        -0.021984098479151726,
        0.013532524928450584,
        0.2756914496421814,
        0.19209347665309906,
        -0.03749238699674606,
        0.6176624298095703,
        0.5177549719810486,
        -0.148391455411911,
        -0.14059850573539734,
        0.06889694929122925,
        0.6646144390106201,
        -0.24159160256385803,
        0.22335422039031982,
        0.5100297331809998,
        -0.21723635494709015,
        0.1521255224943161,
        0.28550222516059875,
        -0.11390598863363266,
        0.08614816516637802,
        0.36224082112312317,
        -0.10321953147649765,
        -0.14637485146522522,
        -0.017413543537259102,
        0.03629278391599655,
        0.14702118933200836,
        -0.33147916197776794,
        0.671068549156189,
        0.20480503141880035,
        -0.1268247812986374,
        0.15160511434078217,
        -0.28708696365356445,
        -0.4639799892902374,
        -0.05993465706706047,
        -0.17397424578666687,
        -0.9837979674339294,
        0.05848829448223114,
        -0.0042986031621694565
      ]
    },
    {
      "activation": "rectified",
      "architecture": "dense",
      "bias": [
        2.0148496627807617,
        0.5656155347824097,
        -1.642982006072998,
        -0.7274540066719055,
        0.020251430571079254,
        2.4684369564056396,
        -1.9435056447982788,
        -0.40366843342781067,
        -1.3345388174057007,
        -2.8774707317352295,
        -0.01716926321387291,
        -1.9878698587417603,
        -1.6012721061706543,
        1.0857493877410889,
        1.6872972249984741,
        -0.0824982076883316
      ],
      "weights": [
        -0.31213468313217163,
        0.299469918012619,
        -0.14949728548526764,
        0.6593543291091919,
        1.0162428617477417,
        0.6699901819229126,
        0.22758686542510986,
        0.19242961704730988,
        0.2133769690990448,
        -0.7207985520362854,
        -0.5135297775268555,
        -0.19760452210903168,
        -1.2354118824005127,
        -0.021766297519207,
        -0.22063229978084564,
        -0.2163960039615631,
        0.16946183145046234,
        -0.16137337684631348,
        0.20231755077838898,
        -0.0041606794111430645,
        -1.1653279066085815,
        0.24668650329113007,
        0.1476043462753296,
        0.0059767235070466995,
        -0.5678608417510986,
        0.45944079756736755,
        -0.36810997128486633,
        0.4581931531429291,
        -0.03939679265022278,
        0.07113669812679291,
        0.14090459048748016,
        0.5310315489768982,
        0.453213095664978,
        -0.07609380781650543,
        0.17309477925300598,
        0.49588796496391296,
        -0.28450697660446167,
        -0.20255932211875916,
        -0.14852511882781982,
        0.011223282665014267,
        0.04801470413804054,
        0.4138684570789337,
        -0.0976841077208519,
        -0.02410123310983181,
        0.7582808136940002,
        0.03606083244085312,
        0.004264156799763441,
        0.2812724709510803,
        -0.3145231008529663,
        0.1835724413394928,
        -0.13014642894268036,
        0.11710294336080551,
        -1.3926154375076294,
        0.24592073261737823,
        0.0011097962269559503,
        0.058946821838617325,
        0.2529844343662262,
        -0.3642091751098633,
        -0.31257858872413635,
        -0.04585706815123558,
        0.08571448922157288,
        0.6320034861564636,
        -0.09544041752815247,
        0.10598891973495483,
        0.286933034658432,
        0.4235382378101349,
        -0.017121145501732826,
        0.39338162541389465,
        -0.05732560530304909,
        0.970506489276886,
        -0.3323957324028015,
        0.37538015842437744,
        -0.24681943655014038,
        0.09124758094549179,
        0.5442793965339661,
        -0.49718421697616577,
        -0.4817999601364136,
        -1.1529247760772705,
        0.07766193896532059,
        0.5127531290054321,
        -0.2629852592945099,
        0.27805760502815247,
        0.5705718398094177,
        0.1896222084760666,
        -1.1595546007156372,
        0.10255909711122513,
        -0.7454197406768799,
        -0.12990397214889526,
        -0.058876220136880875,
        -0.060723721981048584,
        0.05152059346437454,
        -0.15666049718856812,
        -0.08192617446184158,
        0.10777870565652847,
        0.0023661849554628134,
        0.1816602349281311,
        0.21991026401519775,
        -0.22030287981033325,
        0.04555344954133034,
        0.128825381398201,
        0.5095168352127075,
        0.2568163573741913,
        -0.2216023951768875,
        0.62685626745224,
        0.26909172534942627,
        -0.3409973978996277,
        -0.30255594849586487,
        0.5318722724914551,
        -0.03836178779602051,
        0.027237286791205406,
        -0.35762786865234375,
        0.8100592494010925,
        -0.3883243203163147,
        -0.2866213917732239,
        0.760038435459137,
        -0.18451622128486633,
        0.44966191053390503,
        -0.7590437531471252,
        0.9475905299186707,
        -0.16699831187725067,
        0.6041932106018066,
        -0.8852490782737732,
        -0.02073458395898342,
        -0.12202572077512741,
        -0.4665296971797943,
        -0.04492606222629547,
        0.02255556732416153,
        -0.3679162561893463,
        -0.4169475734233856,
        -0.3315753638744354,
        0.47455668449401855,
        -0.4596899747848511,
        0.11854615807533264,
        -0.1522805094718933,
        -0.8354703187942505,
        -0.09156699478626251,
        -0.20819121599197388,
        -0.17621798813343048,
        0.28228721022605896,
        0.025366446003317833,
        -0.15491607785224915,
        0.41099417209625244,
        0.15618333220481873,
        -0.5064211487770081,
        0.1902163028717041,
        -1.559628963470459,
        -0.3673378527164459,
        -0.07559160143136978,
        -0.15454214811325073,
        1.1411232948303223,
        0.20013391971588135,
        0.7198752760887146,
        0.1631144881248474,
        0.20868019759655,
        0.4766727089881897,
        -1.008798360824585,
        -0.19112589955329895,
        -0.16470661759376526,
        -0.1785184144973755,
        0.016423914581537247,
        -0.2149430215358734,
        -0.1975613385438919,
        1.0104206800460815,
        0.18013541400432587,
        0.10652538388967514,
        0.48319706320762634,
        -0.1741277575492859,
        0.8437997102737427,
        -0.04286620393395424,
        -0.017235523089766502,
        -0.4294297397136688,
        -0.09075415134429932,
        -1.179328441619873,
        -0.4053080677986145,
        -0.14772990345954895,
        0.06672954559326172,
        0.3440667688846588,
        -0.2598148286342621,
        -0.3970819413661957,
        -1.5271493196487427,
        0.1817583292722702,
        0.2630852460861206,
        -0.2174527645111084,
        -0.06901442259550095,
        0.5743308067321777,
        -0.8381597995758057,
        -0.15710602700710297,
        -0.13770215213298798,
        0.4540155827999115,
        0.17229221761226654,
        -0.19852645695209503,
        0.4686356484889984,
        -0.20244485139846802,
        0.5506801605224609,
        0.23091727495193481,
        -0.19274741411209106,
        -0.2671666741371155,
        -0.03621203079819679,
        -0.060390543192625046,
        -0.1657821387052536,
        -0.0936846137046814,
        0.1268610954284668,
        0.007181328721344471,
        0.15049269795417786,
        0.009478217922151089,
        -0.05554468557238579,
        -0.03357280418276787,
        -0.016060316935181618,
        -0.04400735720992088,
        0.07650486379861832,
        0.01587545871734619,
        0.014456779696047306,
        -0.7152237892150879,
        0.6067416071891785,
        -0.15094473958015442,
        -0.3262559473514557,
        -0.21068795025348663,
        -0.03062254749238491,
        0.16495835781097412,
        -0.28437575697898865,
        -0.024387367069721222,
        0.003949297126382589,
        0.6027529835700989,
        -0.13692748546600342,
        -0.19051609933376312,
        -0.21919362246990204,
        0.17517690360546112,
        -0.17657425999641418,
        -0.12120382487773895,
        -0.7830727696418762,
        -0.05961678922176361,
        -0.7479869723320007,
        0.38629621267318726,
        -0.14592254161834717,
        0.47484347224235535,
        -0.2347506731748581,
        -0.08626703172922134,
        -0.2594923675060272,
        0.44283127784729004,
        0.8869661688804626,
        0.099688321352005,
        -0.4417140781879425,
        -0.4067680835723877,
